digraph Tree {
node [shape=box, style="filled, rounded", color="black", fontname=helvetica] ;
edge [fontname=helvetica] ;
0 [label="petal width (cm) <= 0.75\ngini = 0.66\nsamples = 89\nvalue = [58, 48, 44]\nclass = setosa", fillcolor="#fcf3ec"] ;
1 [label="gini = 0.0\nsamples = 29\nvalue = [58, 0, 0]\nclass = setosa", fillcolor="#e58139"] ;
0 -> 1 [labeldistance=2.5, labelangle=45, headlabel="True"] ;
2 [label="petal width (cm) <= 1.65\ngini = 0.5\nsamples = 60\nvalue = [0, 48, 44]\nclass = versicolor", fillcolor="#effdf5"] ;
0 -> 2 [labeldistance=2.5, labelangle=-45, headlabel="False"] ;
3 [label="petal length (cm) <= 4.85\ngini = 0.14\nsamples = 32\nvalue = [0, 47, 4]\nclass = versicolor", fillcolor="#4ae78c"] ;
2 -> 3 ;
4 [label="gini = 0.0\nsamples = 28\nvalue = [0, 46, 0]\nclass = versicolor", fillcolor="#39e581"] ;
3 -> 4 ;
5 [label="petal width (cm) <= 1.55\ngini = 0.32\nsamples = 4\nvalue = [0, 1, 4]\nclass = virginica", fillcolor="#a06aec"] ;
3 -> 5 ;
6 [label="gini = 0.0\nsamples = 3\nvalue = [0, 0, 4]\nclass = virginica", fillcolor="#8139e5"] ;
5 -> 6 ;
7 [label="gini = 0.0\nsamples = 1\nvalue = [0, 1, 0]\nclass = versicolor", fillcolor="#39e581"] ;
5 -> 7 ;
8 [label="sepal length (cm) <= 5.95\ngini = 0.05\nsamples = 28\nvalue = [0, 1, 40]\nclass = virginica", fillcolor="#843ee6"] ;
2 -> 8 ;
9 [label="sepal length (cm) <= 5.85\ngini = 0.28\nsamples = 5\nvalue = [0, 1, 5]\nclass = virginica", fillcolor="#9a61ea"] ;
8 -> 9 ;
10 [label="gini = 0.0\nsamples = 4\nvalue = [0, 0, 5]\nclass = virginica", fillcolor="#8139e5"] ;
9 -> 10 ;
11 [label="gini = 0.0\nsamples = 1\nvalue = [0, 1, 0]\nclass = versicolor", fillcolor="#39e581"] ;
9 -> 11 ;
12 [label="gini = 0.0\nsamples = 23\nvalue = [0, 0, 35]\nclass = virginica", fillcolor="#8139e5"] ;
8 -> 12 ;
}